{"weights": [[-0.06460465490818024, 0.38208284974098206, 0.05854785442352295, 0.230455681681633, 0.09411652386188507, 0.06727591902017593, -0.6650921106338501, -0.2267225682735443, -0.20122972130775452, 0.016565289348363876, 0.10968717187643051, 0.39948156476020813, 0.12791994214057922, -0.033192023634910583, 0.06922352313995361, 0.07916201651096344, -0.19326364994049072, -0.058788448572158813, 0.13773466646671295, -0.0422387532889843, 0.2803301215171814, -0.4547484815120697, -0.12555408477783203, -0.10982611030340195, 0.2234611213207245, -0.18929117918014526, -0.0008967994945123792, -0.12526662647724152, -0.1836106777191162, -0.1302158087491989, -0.018607856705784798, 0.4179275929927826, -0.026162810623645782, -0.032719168812036514, -0.03854247182607651, 0.1591966301202774, -0.05084812268614769, 0.09021733701229095, -0.15470845997333527, 0.31445634365081787, -0.006701454054564238, 0.15362365543842316, 0.1450643092393875, -0.028687046840786934, -0.4160516858100891, 0.10598341375589371, -0.006766484584659338, -0.20733237266540527, -0.6827765107154846, 0.35871171951293945, -0.12396476417779922, 0.021128877997398376, -0.020629651844501495, 0.10001421719789505, 0.35331371426582336, -0.0613468736410141, -0.12457846105098724, -0.335620254278183, -0.15962018072605133, -0.21676792204380035, 0.20391835272312164, -0.11821907013654709, -0.2046663761138916, 0.19010040163993835, -0.04807331785559654, 0.06112007424235344, 0.13595636188983917, 0.19533893465995789, -0.2715795934200287, -0.3447306454181671, -0.12907300889492035, 0.20108237862586975, -0.2828240990638733, -0.09176711738109589, -0.09753652662038803, 0.0470481775701046, 0.07127364724874496, 0.15571926534175873, -0.0851605162024498, -0.3375101387500763, 0.1380307525396347, 0.17355921864509583, 0.1444959193468094, -0.1598205417394638, 0.2655179798603058, 0.10714603215456009, -0.1726396232843399, -0.383173406124115, -0.2818586826324463, -0.03958570584654808, -0.0386953242123127, -0.16417211294174194, 0.00729331374168396, -0.031229425221681595, 0.23148110508918762, -0.03071013279259205, 0.18015208840370178, -0.3487115502357483, 0.32971450686454773, -0.2462538480758667, -0.010125969536602497, 0.19813109934329987, 0.09910745173692703, 0.143644779920578, 0.041328590363264084, -0.2172471433877945, -0.10455000400543213, -0.056897442787885666, -0.05586983636021614, -0.20986676216125488, 0.10669195652008057, 0.10008617490530014, 0.12566889822483063, -0.1666184961795807, -0.13589517772197723, -0.02275094948709011, 0.057902172207832336, 0.13741682469844818, 0.21153420209884644, -0.06423915922641754, -0.04440227895975113, 0.0956951156258583, -0.11021481454372406, -0.5174490809440613, 0.041242845356464386, -0.011509748175740242, 0.18059058487415314, 7.363623547917131e-33, 0.12159109860658646, 0.10625405609607697, 0.0815761536359787, 0.24159470200538635, 0.035911425948143005, -0.3456670343875885, 0.09101711958646774, -0.22942547500133514, 0.0045092664659023285, -0.19287484884262085, -0.090117909014225, 0.06476940214633942, 0.30433255434036255, -0.07788553088903427, 0.03595159202814102, -0.19824498891830444, -0.1801234930753708, 0.35928142070770264, -0.010868154466152191, 0.06141406670212746, -0.14237719774246216, -0.1257258802652359, -0.032012518495321274, -0.33435192704200745, -0.15217973291873932, -0.4755762219429016, 0.33605995774269104, 0.0850512683391571, -0.18259884417057037, -0.1154678538441658, 0.10291007906198502, 0.4288763999938965, 0.13364486396312714, 0.08471346646547318, 0.217033252120018, 0.1628178507089615, 0.051565226167440414, -0.13605789840221405, 0.08461733162403107, -0.016266075894236565, 0.04512334242463112, -0.10005729645490646, 0.2312820702791214, -0.19409240782260895, 0.2780083417892456, -0.15646035969257355, 0.329325795173645, 0.03481162711977959, 0.09582307189702988, -0.09937608987092972, 0.10718458890914917, 0.09611257910728455, -0.09411824494600296, -0.19266755878925323, -0.01133247371762991, 0.14894485473632812, -0.3313918709754944, 0.04273202270269394, -0.34030619263648987, -0.08754580467939377, 0.033858515322208405, -0.14787574112415314, -0.04795156419277191, -0.12277650833129883, 0.12472794204950333, 0.3715810477733612, -0.04058482497930527, -0.29497870802879333, 0.04535512998700142, 0.21609263122081757, 0.3162328898906708, 0.2821652591228485, -0.17865054309368134, -0.23923620581626892, 0.04464617371559143, 0.24687817692756653, -0.024842845275998116, -0.12100439518690109, 0.39946117997169495, 0.20348568260669708, -0.3143591284751892, -0.23955674469470978, -0.03392328694462776, 0.19597262144088745, 0.29453086853027344, 0.21212275326251984, 0.05107666552066803, -0.2850237190723419, -0.0688212513923645, 0.2887771427631378, 0.2134619802236557, -0.2551645338535309, -0.03489634394645691, 0.4153073728084564, 0.2747269570827484, -1.194041888436737e-32, 0.21223405003547668, 0.12337479740381241, -0.15248821675777435, -0.009538955986499786, -0.0781441256403923, 0.12915705144405365, -0.16077379882335663, -0.4516375660896301, -0.33930981159210205, -0.17659030854701996, -0.19446420669555664, -0.09792079031467438, 0.08695130050182343, -0.11934102326631546, -0.35306137800216675, -0.02131352573633194, -0.007506712805479765, -0.40182018280029297, -0.05232701078057289, 0.20757915079593658, 0.2572011649608612, -0.05638376995921135, -0.06633568555116653, -0.27114489674568176, 0.45166686177253723, -0.12964023649692535, -0.5777090787887573, -0.19418951869010925, 0.09269830584526062, -0.08498106151819229, -0.15927205979824066, 0.04946833848953247, 0.1543983519077301, -0.2175188809633255, -0.03509700670838356, 0.42533573508262634, -0.022815391421318054, -0.19816188514232635, 0.41215652227401733, 0.23146124184131622, 0.05219526216387749, 0.1083105206489563, 0.027425790205597878, -0.24027608335018158, 0.0022726948373019695, 0.16473379731178284, -0.19245857000350952, -0.004978551995009184, -0.16848832368850708, -0.21264557540416718, 0.31274792551994324, 0.32561659812927246, -0.1998402178287506, -0.0034861539024859667, -0.36337512731552124, 0.3855084776878357, 0.19945237040519714, -0.06922397762537003, -0.0964154303073883, 0.3943060338497162, -0.17656292021274567, -0.05712326988577843, 0.269395112991333, 0.2626783847808838, -0.0827474296092987, 0.0705585777759552, 0.22041629254817963, 0.30016112327575684, -0.0900639221072197, -0.03340429440140724, 0.21671417355537415, -0.01078022737056017, 0.077048659324646, 0.12729540467262268, 0.055430006235837936, -0.4006095230579376, 0.0822937861084938, -0.05248388648033142, -0.12180037051439285, 0.4020574390888214, 0.19718968868255615, 0.27905359864234924, 0.19732992351055145, -0.13096921145915985, -0.17735633254051208, -0.019759899005293846, -0.025087254121899605, -0.07787149399518967, -0.12213579565286636, 0.02527177520096302, -0.43478626012802124, -0.022908978164196014, -0.04761767014861107, 0.23902875185012817, -0.1768515259027481, -2.8634753235223798e-08, 0.07685495913028717, -0.13685226440429688, 0.12501202523708344, -0.004147588741034269, -0.32782694697380066, -0.07439712435007095, 0.009973851032555103, -0.05371028929948807, -0.3193374276161194, -0.12722787261009216, -0.04141780361533165, 0.01011352427303791, -0.09671194106340408, 0.004920473787933588, 0.09275162220001221, 0.05429883301258087, -0.12214712798595428, -0.04871358722448349, -0.10349157452583313, 0.01744723506271839, 0.38568252325057983, -0.22091390192508698, -0.16709409654140472, 0.06965282559394836, 0.039685823023319244, 0.3142973780632019, 0.23861904442310333, -0.17072758078575134, -0.06882045418024063, -0.21904078125953674, 0.02274933084845543, 0.32167038321495056, 0.1203087642788887, 0.09116549044847488, 0.0564667284488678, 0.14130082726478577, 0.01933969557285309, -0.026928246021270752, 0.025467082858085632, -0.03098800778388977, 0.09596513956785202, 0.13191185891628265, -0.27128687500953674, -0.004017185885459185, 0.467438280582428, 0.2941814661026001, -0.16039976477622986, 0.06072937324643135, -0.16945937275886536, 0.030943293124437332, 0.0768144279718399, -0.1523534506559372, 0.13560722768306732, -0.2657017409801483, -0.03690348193049431, 0.223115935921669, 0.21085596084594727, 0.19174844026565552, 0.05504666268825531, -0.1255916953086853, -0.03687480092048645, 0.4037708640098572, 0.21210592985153198, 0.04289112612605095], [-0.2050369530916214, 0.20858134329319, -0.02381284162402153, 0.09171965718269348, 0.03703786060214043, -0.051756538450717926, 0.06640069931745529, -0.3275504410266876, 0.026874177157878876, -0.2762942910194397, -0.0007781759486533701, -0.05163788050413132, 0.17656570672988892, 0.11457310616970062, 0.1329621821641922, 0.14338518679141998, 0.17009732127189636, 0.1580963134765625, 0.24122899770736694, -0.24115072190761566, 0.4428829252719879, -0.11633665859699249, 0.28391093015670776, 0.02729511447250843, 0.0987960621714592, 0.2740862965583801, 0.0009310048772022128, -0.24872693419456482, 0.1906672716140747, -0.4224284887313843, -0.006444462109357119, -0.2199382781982422, -0.04372037202119827, -0.07364783436059952, -0.38222500681877136, 0.42684024572372437, -0.046494536101818085, -0.11202947795391083, -0.00804850459098816, 0.5335525870323181, -0.3591967523097992, 0.18232212960720062, 0.20093166828155518, -0.024642927572131157, 0.23663251101970673, 0.03373301401734352, 0.21630682051181793, 0.0882488489151001, -0.04642554000020027, 0.2663080394268036, -0.10824713110923767, -0.2660354971885681, -0.38386860489845276, -0.10519231855869293, 0.3126884996891022, 0.38529372215270996, 0.10367213189601898, -0.3889023959636688, -0.24122028052806854, -0.5301747918128967, -0.2777586579322815, -0.2955734431743622, 0.08244608342647552, 0.10389859229326248, 0.14531740546226501, -0.038606707006692886, -0.03989003598690033, -0.028877785429358482, 0.032065585255622864, 0.21843941509723663, 0.0847449004650116, 0.5967715978622437, 0.07621540874242783, -0.2744368016719818, -0.3929575979709625, 0.20230835676193237, 0.12296038120985031, 0.16211052238941193, -0.03123658522963524, 0.2245185226202011, 0.09988407790660858, -0.1474176049232483, 0.18200677633285522, -0.3220377266407013, 0.1337841898202896, 0.01609092205762863, -0.2184339165687561, -0.13794003427028656, -0.4838525652885437, 0.07378491759300232, 0.05763004347681999, 0.15775802731513977, -0.0953221395611763, 0.26506415009498596, -0.40089330077171326, -0.16712123155593872, -0.028395812958478928, -0.0775146633386612, 0.16430261731147766, 0.06135360524058342, -0.09338248521089554, 0.02077958546578884, -0.23199045658111572, -0.06184730306267738, 0.4117545485496521, 0.23726704716682434, -0.08980029076337814, 0.09316784143447876, -0.10063698142766953, 0.09128104895353317, 0.22655832767486572, 0.06471779942512512, 0.06226378679275513, 0.2538355886936188, -0.12032728642225266, -0.008544226177036762, -0.24325595796108246, -0.011784912087023258, 0.1742832064628601, -0.4253671169281006, -0.19732730090618134, 0.029219234362244606, 0.32915186882019043, -0.5673146843910217, -0.1417716145515442, 0.061349060386419296, -0.0385492667555809, -8.974514577799263e-34, 0.13311107456684113, 0.07069659233093262, 0.43180498480796814, 0.28992781043052673, 0.27508407831192017, -0.12456388026475906, -0.4507295787334442, -0.3062556982040405, -0.35854968428611755, -0.2182765156030655, -0.008761066943407059, 0.06368207931518555, 0.011894955299794674, 0.03230922296643257, -0.08473373204469681, -0.5430132150650024, -0.24303217232227325, 0.18042615056037903, 0.11266383528709412, 0.16066904366016388, -0.45001286268234253, -0.3030698895454407, -0.21267451345920563, -0.07107026875019073, -0.1709659993648529, -0.41652536392211914, -0.1487281620502472, -0.020874416455626488, -0.263600617647171, 0.12287767976522446, 0.04614674672484398, 0.024640144780278206, 0.04410390928387642, -0.549966037273407, 0.0946580022573471, -0.1894143670797348, -0.22506101429462433, -0.5342903733253479, -0.20938900113105774, 0.031658582389354706, 0.004392002243548632, -0.22664058208465576, 0.39826396107673645, -0.15396083891391754, 0.14749862253665924, 0.024756060913205147, -0.5594527721405029, 0.29619327187538147, 0.22973862290382385, -0.04068707674741745, 0.10265812277793884, -0.052683472633361816, -0.22625507414340973, -0.02852691151201725, 0.11256317049264908, 0.2917648255825043, -0.19553886353969574, 0.18819096684455872, -0.22304107248783112, 0.22649139165878296, -0.0967036783695221, 0.1915697604417801, 0.05689704045653343, -0.25871536135673523, 0.21078446507453918, 0.37922173738479614, 0.0872308686375618, -0.2372651845216751, -0.14620305597782135, 0.18490386009216309, -0.35102781653404236, -0.040842391550540924, 0.07403088361024857, -0.3457097113132477, 0.12481944262981415, 0.16494420170783997, -0.2045123428106308, -0.16770344972610474, 0.22566501796245575, 0.3179319500923157, -0.4194874167442322, -0.19678674638271332, -0.228267639875412, 0.1512477993965149, 0.16017717123031616, 0.02221750095486641, -0.052981045097112656, -0.39074084162712097, 0.16018760204315186, 0.16687515377998352, 0.32530149817466736, 0.2525360584259033, 0.012468330562114716, 0.0769786462187767, -0.2861179709434509, 2.4503699531798837e-33, 0.5553528666496277, 0.28450775146484375, 0.07967467606067657, -0.05736568570137024, 0.19313815236091614, -0.16490501165390015, -0.573906660079956, 0.18992960453033447, -0.14025095105171204, -0.17435705661773682, 0.06664369255304337, 0.01278648991137743, 0.4017057418823242, -0.32655957341194153, -0.22260001301765442, 0.0073030428029596806, 0.44620248675346375, -0.0159585140645504, 0.1703694462776184, -0.23620440065860748, -0.08050868660211563, -0.3853311538696289, -0.11653737723827362, -0.2699834704399109, 0.062160342931747437, 0.17902639508247375, -0.19023947417736053, -0.14850914478302002, 0.07031772285699844, -0.1979350447654724, -0.06854011863470078, -0.3276697099208832, 0.07941555231809616, -0.41379889845848083, -0.030413540080189705, 0.4215262532234192, 0.11591872572898865, -0.11458422988653183, 0.025802455842494965, 0.061702094972133636, -0.0387423001229763, 0.17286856472492218, 0.015806732699275017, 0.33155664801597595, 0.15703575313091278, 0.025261132046580315, -0.06503834575414658, 0.145981565117836, -0.29128697514533997, 0.03082379512488842, 0.10354797542095184, 0.021527806296944618, 0.32052597403526306, -0.19340497255325317, 0.11716243624687195, 0.005804301239550114, -0.2142077088356018, -0.0046245260164141655, 0.11181220412254333, -0.23206618428230286, -0.4435940682888031, -0.20549336075782776, -0.18402716517448425, 0.3253870904445648, -0.11804571002721786, 0.027240918949246407, 0.254669189453125, 0.26450249552726746, -0.5204582214355469, 0.13371491432189941, -0.16867104172706604, 0.048948414623737335, -0.3267262876033783, 0.35165300965309143, 0.37277209758758545, -0.3996497094631195, 0.044243212789297104, -0.45275822281837463, 0.21641016006469727, 0.09655693173408508, -0.1429797112941742, 0.3198426067829132, -0.2027970850467682, -0.02032146044075489, 0.12920516729354858, 0.4276631772518158, -0.20500913262367249, -0.25930219888687134, 0.025270510464906693, 0.015250741504132748, -0.07313409447669983, 0.38249754905700684, 0.4209868013858795, -0.5732383728027344, -0.035077981650829315, 2.0745478224171165e-08, 0.07145644724369049, 0.10745952278375626, 0.06387092173099518, -0.08350241929292679, -0.06099722534418106, -0.13730467855930328, 0.19560177624225616, -0.15891236066818237, -0.5216258764266968, 0.07516204565763474, -0.023034457117319107, 0.38881051540374756, 0.1987927109003067, 0.11289147287607193, 0.051408085972070694, 0.232160285115242, 0.25635361671447754, 0.23117583990097046, 0.2839052081108093, -0.1582052856683731, -0.19533544778823853, -0.0642738863825798, 0.1809828281402588, 0.19086657464504242, -0.3732892870903015, 0.037647660821676254, 0.3193742632865906, -0.1988837569952011, -0.0010574585758149624, 0.1415289044380188, 0.25838160514831543, 0.3211635947227478, -0.14179880917072296, -0.12797582149505615, -0.053542133420705795, 0.03281542286276817, 0.22486841678619385, -0.26046738028526306, 0.20426030457019806, 0.19235242903232574, -0.08923310786485672, 0.007209700997918844, 0.061449650675058365, 0.03006781078875065, -0.012153564020991325, 0.09295546263456345, 0.525811493396759, 0.3058106303215027, -0.3460087478160858, 0.10816081613302231, 0.06968587636947632, -0.08746184408664703, 0.13249921798706055, 0.27338677644729614, -0.28956863284111023, 0.33323052525520325, -0.32693490386009216, 0.09797361493110657, 0.18775475025177002, 0.44247785210609436, 0.017173929139971733, -0.16150319576263428, 0.17401719093322754, 0.08516111969947815]], "intercepts": [0.07245045900344849, -0.017464473843574524]}